digraph Tree {
node [shape=box, style="filled, rounded", color="black", fontname=helvetica] ;
edge [fontname=helvetica] ;
0 [label=<TIPO_PACIENTE &le; 1.5<br/>entropy = 0.333<br/>samples = 1091695<br/>value = [67165, 1024530]<br/>class = Estado no vivo>, fillcolor="#46a3e7"] ;
1 [label=<NEUMONIA &le; 1.5<br/>entropy = 0.067<br/>samples = 885205<br/>value = [7082, 878123]<br/>class = Estado no vivo>, fillcolor="#3b9ee5"] ;
0 -> 1 [labeldistance=2.5, labelangle=45, headlabel="True"] ;
2 [label=<EDAD &le; 52.5<br/>entropy = 0.592<br/>samples = 25268<br/>value = [3612, 21656]<br/>class = Estado no vivo>, fillcolor="#5aade9"] ;
1 -> 2 ;
3 [label=<EDAD &le; 39.5<br/>entropy = 0.314<br/>samples = 16880<br/>value = [958, 15922]<br/>class = Estado no vivo>, fillcolor="#45a3e7"] ;
2 -> 3 ;
4 [label=<EDAD &le; 30.5<br/>entropy = 0.175<br/>samples = 9966<br/>value = [261, 9705]<br/>class = Estado no vivo>, fillcolor="#3ea0e6"] ;
3 -> 4 ;
5 [label=<entropy = 0.12<br/>samples = 5048<br/>value = [82, 4966]<br/>class = Estado no vivo>, fillcolor="#3c9fe5"] ;
4 -> 5 ;
6 [label=<entropy = 0.226<br/>samples = 4918<br/>value = [179, 4739]<br/>class = Estado no vivo>, fillcolor="#40a1e6"] ;
4 -> 6 ;
7 [label=<SEXO &le; 1.5<br/>entropy = 0.472<br/>samples = 6914<br/>value = [697, 6217]<br/>class = Estado no vivo>, fillcolor="#4fa8e8"] ;
3 -> 7 ;
8 [label=<entropy = 0.341<br/>samples = 3290<br/>value = [209, 3081]<br/>class = Estado no vivo>, fillcolor="#46a4e7"] ;
7 -> 8 ;
9 [label=<entropy = 0.57<br/>samples = 3624<br/>value = [488, 3136]<br/>class = Estado no vivo>, fillcolor="#58ace9"] ;
7 -> 9 ;
10 [label=<EDAD &le; 64.5<br/>entropy = 0.9<br/>samples = 8388<br/>value = [2654, 5734]<br/>class = Estado no vivo>, fillcolor="#95caf1"] ;
2 -> 10 ;
11 [label=<SEXO &le; 1.5<br/>entropy = 0.786<br/>samples = 4745<br/>value = [1112, 3633]<br/>class = Estado no vivo>, fillcolor="#76bbed"] ;
10 -> 11 ;
12 [label=<entropy = 0.696<br/>samples = 2089<br/>value = [391, 1698]<br/>class = Estado no vivo>, fillcolor="#67b4eb"] ;
11 -> 12 ;
13 [label=<entropy = 0.844<br/>samples = 2656<br/>value = [721, 1935]<br/>class = Estado no vivo>, fillcolor="#83c2ef"] ;
11 -> 13 ;
14 [label=<SEXO &le; 1.5<br/>entropy = 0.983<br/>samples = 3643<br/>value = [1542, 2101]<br/>class = Estado no vivo>, fillcolor="#cae5f8"] ;
10 -> 14 ;
15 [label=<entropy = 0.958<br/>samples = 1538<br/>value = [584, 954]<br/>class = Estado no vivo>, fillcolor="#b2d9f5"] ;
14 -> 15 ;
16 [label=<entropy = 0.994<br/>samples = 2105<br/>value = [958, 1147]<br/>class = Estado no vivo>, fillcolor="#deeffb"] ;
14 -> 16 ;
17 [label=<EDAD &le; 55.5<br/>entropy = 0.038<br/>samples = 859937<br/>value = [3470, 856467]<br/>class = Estado no vivo>, fillcolor="#3a9de5"] ;
1 -> 17 ;
18 [label=<EDAD &le; 43.5<br/>entropy = 0.018<br/>samples = 737531<br/>value = [1208, 736323]<br/>class = Estado no vivo>, fillcolor="#399de5"] ;
17 -> 18 ;
19 [label=<SEXO &le; 1.5<br/>entropy = 0.009<br/>samples = 538837<br/>value = [429, 538408]<br/>class = Estado no vivo>, fillcolor="#399de5"] ;
18 -> 19 ;
20 [label=<entropy = 0.005<br/>samples = 282942<br/>value = [115, 282827]<br/>class = Estado no vivo>, fillcolor="#399de5"] ;
19 -> 20 ;
21 [label=<entropy = 0.014<br/>samples = 255895<br/>value = [314, 255581]<br/>class = Estado no vivo>, fillcolor="#399de5"] ;
19 -> 21 ;
22 [label=<SEXO &le; 1.5<br/>entropy = 0.037<br/>samples = 198694<br/>value = [779, 197915]<br/>class = Estado no vivo>, fillcolor="#3a9de5"] ;
18 -> 22 ;
23 [label=<entropy = 0.023<br/>samples = 107093<br/>value = [245, 106848]<br/>class = Estado no vivo>, fillcolor="#399de5"] ;
22 -> 23 ;
24 [label=<entropy = 0.052<br/>samples = 91601<br/>value = [534, 91067]<br/>class = Estado no vivo>, fillcolor="#3a9ee5"] ;
22 -> 24 ;
25 [label=<EDAD &le; 63.5<br/>entropy = 0.133<br/>samples = 122406<br/>value = [2262, 120144]<br/>class = Estado no vivo>, fillcolor="#3d9fe5"] ;
17 -> 25 ;
26 [label=<SEXO &le; 1.5<br/>entropy = 0.084<br/>samples = 69377<br/>value = [725, 68652]<br/>class = Estado no vivo>, fillcolor="#3b9ee5"] ;
25 -> 26 ;
27 [label=<entropy = 0.062<br/>samples = 35697<br/>value = [257, 35440]<br/>class = Estado no vivo>, fillcolor="#3a9ee5"] ;
26 -> 27 ;
28 [label=<entropy = 0.106<br/>samples = 33680<br/>value = [468, 33212]<br/>class = Estado no vivo>, fillcolor="#3c9ee5"] ;
26 -> 28 ;
29 [label=<EDAD &le; 70.5<br/>entropy = 0.189<br/>samples = 53029<br/>value = [1537, 51492]<br/>class = Estado no vivo>, fillcolor="#3fa0e6"] ;
25 -> 29 ;
30 [label=<entropy = 0.147<br/>samples = 28266<br/>value = [595, 27671]<br/>class = Estado no vivo>, fillcolor="#3d9fe6"] ;
29 -> 30 ;
31 [label=<entropy = 0.233<br/>samples = 24763<br/>value = [942, 23821]<br/>class = Estado no vivo>, fillcolor="#41a1e6"] ;
29 -> 31 ;
32 [label=<EDAD &le; 51.5<br/>entropy = 0.87<br/>samples = 206490<br/>value = [60083, 146407]<br/>class = Estado no vivo>, fillcolor="#8ac5f0"] ;
0 -> 32 [labeldistance=2.5, labelangle=-45, headlabel="False"] ;
33 [label=<INTUBADO &le; 1.5<br/>entropy = 0.641<br/>samples = 85247<br/>value = [13887, 71360]<br/>class = Estado no vivo>, fillcolor="#60b0ea"] ;
32 -> 33 ;
34 [label=<EDAD &le; 27.5<br/>entropy = 1.0<br/>samples = 6220<br/>value = [3179, 3041]<br/>class = Estado vivo>, fillcolor="#fefaf6"] ;
33 -> 34 ;
35 [label=<EDAD &le; 0.5<br/>entropy = 0.844<br/>samples = 1500<br/>value = [408, 1092]<br/>class = Estado no vivo>, fillcolor="#83c2ef"] ;
34 -> 35 ;
36 [label=<entropy = 0.62<br/>samples = 448<br/>value = [69, 379]<br/>class = Estado no vivo>, fillcolor="#5dafea"] ;
35 -> 36 ;
37 [label=<entropy = 0.907<br/>samples = 1052<br/>value = [339, 713]<br/>class = Estado no vivo>, fillcolor="#97ccf1"] ;
35 -> 37 ;
38 [label=<NEUMONIA &le; 1.5<br/>entropy = 0.978<br/>samples = 4720<br/>value = [2771, 1949]<br/>class = Estado vivo>, fillcolor="#f7dac4"] ;
34 -> 38 ;
39 [label=<entropy = 0.967<br/>samples = 4259<br/>value = [2582, 1677]<br/>class = Estado vivo>, fillcolor="#f6d3ba"] ;
38 -> 39 ;
40 [label=<entropy = 0.976<br/>samples = 461<br/>value = [189, 272]<br/>class = Estado no vivo>, fillcolor="#c3e1f7"] ;
38 -> 40 ;
41 [label=<EDAD &le; 36.5<br/>entropy = 0.572<br/>samples = 79027<br/>value = [10708, 68319]<br/>class = Estado no vivo>, fillcolor="#58ace9"] ;
33 -> 41 ;
42 [label=<NEUMONIA &le; 1.5<br/>entropy = 0.382<br/>samples = 32752<br/>value = [2434, 30318]<br/>class = Estado no vivo>, fillcolor="#49a5e7"] ;
41 -> 42 ;
43 [label=<entropy = 0.511<br/>samples = 13577<br/>value = [1546, 12031]<br/>class = Estado no vivo>, fillcolor="#52aae8"] ;
42 -> 43 ;
44 [label=<entropy = 0.271<br/>samples = 19175<br/>value = [888, 18287]<br/>class = Estado no vivo>, fillcolor="#43a2e6"] ;
42 -> 44 ;
45 [label=<NEUMONIA &le; 1.5<br/>entropy = 0.677<br/>samples = 46275<br/>value = [8274, 38001]<br/>class = Estado no vivo>, fillcolor="#64b2eb"] ;
41 -> 45 ;
46 [label=<entropy = 0.758<br/>samples = 26339<br/>value = [5770, 20569]<br/>class = Estado no vivo>, fillcolor="#71b8ec"] ;
45 -> 46 ;
47 [label=<entropy = 0.545<br/>samples = 19936<br/>value = [2504, 17432]<br/>class = Estado no vivo>, fillcolor="#55abe9"] ;
45 -> 47 ;
48 [label=<INTUBADO &le; 1.5<br/>entropy = 0.959<br/>samples = 121243<br/>value = [46196, 75047]<br/>class = Estado no vivo>, fillcolor="#b3d9f5"] ;
32 -> 48 ;
49 [label=<NEUMONIA &le; 1.5<br/>entropy = 0.868<br/>samples = 11627<br/>value = [8259, 3368]<br/>class = Estado vivo>, fillcolor="#f0b48a"] ;
48 -> 49 ;
50 [label=<EDAD &le; 61.5<br/>entropy = 0.847<br/>samples = 10632<br/>value = [7717, 2915]<br/>class = Estado vivo>, fillcolor="#efb184"] ;
49 -> 50 ;
51 [label=<entropy = 0.891<br/>samples = 3950<br/>value = [2734, 1216]<br/>class = Estado vivo>, fillcolor="#f1b991"] ;
50 -> 51 ;
52 [label=<entropy = 0.818<br/>samples = 6682<br/>value = [4983, 1699]<br/>class = Estado vivo>, fillcolor="#eeac7d"] ;
50 -> 52 ;
53 [label=<UCI &le; 1.5<br/>entropy = 0.994<br/>samples = 995<br/>value = [542, 453]<br/>class = Estado vivo>, fillcolor="#fbeade"] ;
49 -> 53 ;
54 [label=<entropy = 0.945<br/>samples = 212<br/>value = [77, 135]<br/>class = Estado no vivo>, fillcolor="#aad5f4"] ;
53 -> 54 ;
55 [label=<entropy = 0.974<br/>samples = 783<br/>value = [465, 318]<br/>class = Estado vivo>, fillcolor="#f7d7c0"] ;
53 -> 55 ;
56 [label=<NEUMONIA &le; 1.5<br/>entropy = 0.931<br/>samples = 109616<br/>value = [37937, 71679]<br/>class = Estado no vivo>, fillcolor="#a2d1f3"] ;
48 -> 56 ;
57 [label=<EDAD &le; 62.5<br/>entropy = 0.964<br/>samples = 67367<br/>value = [26175, 41192]<br/>class = Estado no vivo>, fillcolor="#b7dbf6"] ;
56 -> 57 ;
58 [label=<entropy = 0.907<br/>samples = 27331<br/>value = [8824, 18507]<br/>class = Estado no vivo>, fillcolor="#97ccf1"] ;
57 -> 58 ;
59 [label=<entropy = 0.987<br/>samples = 40036<br/>value = [17351, 22685]<br/>class = Estado no vivo>, fillcolor="#d0e8f9"] ;
57 -> 59 ;
60 [label=<EDAD &le; 65.5<br/>entropy = 0.853<br/>samples = 42249<br/>value = [11762, 30487]<br/>class = Estado no vivo>, fillcolor="#85c3ef"] ;
56 -> 60 ;
61 [label=<entropy = 0.774<br/>samples = 21847<br/>value = [4976, 16871]<br/>class = Estado no vivo>, fillcolor="#73baed"] ;
60 -> 61 ;
62 [label=<entropy = 0.918<br/>samples = 20402<br/>value = [6786, 13616]<br/>class = Estado no vivo>, fillcolor="#9ccef2"] ;
60 -> 62 ;
}
